## LambdaMART
## No. of trees = 1000
## No. of leaves = 10
## No. of threshold candidates = 256
## Learning rate = 0.1
## Stop early = 100

<ensemble>
	<tree id="1" weight="0.1">
		<split>
			<feature> 190 </feature>
			<threshold> 0.33333334 </threshold>
			<split pos="left">
				<output> -1.6845523 </output>
			</split>
			<split pos="right">
				<feature> 115 </feature>
				<threshold> 2.0 </threshold>
				<split pos="left">
					<feature> 75 </feature>
					<threshold> 0.0 </threshold>
					<split pos="left">
						<output> 1.5613127 </output>
					</split>
					<split pos="right">
						<feature> 148 </feature>
						<threshold> 0.35529783 </threshold>
						<split pos="left">
							<output> 1.9640343 </output>
						</split>
						<split pos="right">
							<output> 1.9974396 </output>
						</split>
					</split>
				</split>
				<split pos="right">
					<feature> 75 </feature>
					<threshold> 0.0 </threshold>
					<split pos="left">
						<feature> 29 </feature>
						<threshold> 0.80078125 </threshold>
						<split pos="left">
							<output> 1.9682173 </output>
						</split>
						<split pos="right">
							<output> 1.9985726 </output>
						</split>
					</split>
					<split pos="right">
						<feature> 50 </feature>
						<threshold> 0.6015625 </threshold>
						<split pos="left">
							<feature> 26 </feature>
							<threshold> -0.5035093 </threshold>
							<split pos="left">
								<feature> 31 </feature>
								<threshold> 0.07053199 </threshold>
								<split pos="left">
									<output> 1.9926319 </output>
								</split>
								<split pos="right">
									<output> 1.998274 </output>
								</split>
							</split>
							<split pos="right">
								<output> 1.9458522 </output>
							</split>
						</split>
						<split pos="right">
							<output> 1.956444 </output>
						</split>
					</split>
				</split>
			</split>
		</split>
	</tree>
	<tree id="2" weight="0.1">
		<split>
			<feature> 190 </feature>
			<threshold> 0.33333334 </threshold>
			<split pos="left">
				<feature> 29 </feature>
				<threshold> 0.22265625 </threshold>
				<split pos="left">
					<output> -1.5756608 </output>
				</split>
				<split pos="right">
					<output> 1.8366542 </output>
				</split>
			</split>
			<split pos="right">
				<feature> 115 </feature>
				<threshold> 2.0 </threshold>
				<split pos="left">
					<feature> 75 </feature>
					<threshold> 0.0 </threshold>
					<split pos="left">
						<output> 1.2724822 </output>
					</split>
					<split pos="right">
						<output> 1.6714648 </output>
					</split>
				</split>
				<split pos="right">
					<feature> 75 </feature>
					<threshold> 0.0 </threshold>
					<split pos="left">
						<feature> 29 </feature>
						<threshold> 0.80078125 </threshold>
						<split pos="left">
							<output> 1.6611481 </output>
						</split>
						<split pos="right">
							<output> 1.6904217 </output>
						</split>
					</split>
					<split pos="right">
						<feature> 50 </feature>
						<threshold> 0.6015625 </threshold>
						<split pos="left">
							<feature> 26 </feature>
							<threshold> -0.5035093 </threshold>
							<split pos="left">
								<feature> 31 </feature>
								<threshold> 0.07053199 </threshold>
								<split pos="left">
									<output> 1.6846943 </output>
								</split>
								<split pos="right">
									<output> 1.690098 </output>
								</split>
							</split>
							<split pos="right">
								<output> 1.6396065 </output>
							</split>
						</split>
						<split pos="right">
							<output> 1.6498069 </output>
						</split>
					</split>
				</split>
			</split>
		</split>
	</tree>
	<tree id="3" weight="0.1">
		<split>
			<feature> 190 </feature>
			<threshold> 0.33333334 </threshold>
			<split pos="left">
				<feature> 29 </feature>
				<threshold> 0.22265625 </threshold>
				<split pos="left">
					<output> -1.3946447 </output>
				</split>
				<split pos="right">
					<output> 1.6143912 </output>
				</split>
			</split>
			<split pos="right">
				<feature> 115 </feature>
				<threshold> 2.0 </threshold>
				<split pos="left">
					<feature> 75 </feature>
					<threshold> 0.0 </threshold>
					<split pos="left">
						<output> 1.104038 </output>
					</split>
					<split pos="right">
						<output> 1.4803381 </output>
					</split>
				</split>
				<split pos="right">
					<feature> 168 </feature>
					<threshold> 0.0 </threshold>
					<split pos="left">
						<feature> 29 </feature>
						<threshold> 0.80078125 </threshold>
						<split pos="left">
							<output> 1.4696399 </output>
						</split>
						<split pos="right">
							<output> 1.4975629 </output>
						</split>
					</split>
					<split pos="right">
						<feature> 50 </feature>
						<threshold> 0.6015625 </threshold>
						<split pos="left">
							<feature> 26 </feature>
							<threshold> -0.5035093 </threshold>
							<split pos="left">
								<feature> 31 </feature>
								<threshold> 0.07053199 </threshold>
								<split pos="left">
									<output> 1.4917158 </output>
								</split>
								<split pos="right">
									<output> 1.4976827 </output>
								</split>
							</split>
							<split pos="right">
								<output> 1.4498823 </output>
							</split>
						</split>
						<split pos="right">
							<output> 1.4608737 </output>
						</split>
					</split>
				</split>
			</split>
		</split>
	</tree>
	<tree id="4" weight="0.1">
		<split>
			<feature> 190 </feature>
			<threshold> 0.33333334 </threshold>
			<split pos="left">
				<feature> 29 </feature>
				<threshold> 0.22265625 </threshold>
				<split pos="left">
					<output> -1.2637129 </output>
				</split>
				<split pos="right">
					<output> 1.4294754 </output>
				</split>
			</split>
			<split pos="right">
				<feature> 115 </feature>
				<threshold> 2.0 </threshold>
				<split pos="left">
					<feature> 75 </feature>
					<threshold> 0.0 </threshold>
					<split pos="left">
						<output> 0.9507694 </output>
					</split>
					<split pos="right">
						<output> 1.3534414 </output>
					</split>
				</split>
				<split pos="right">
					<feature> 168 </feature>
					<threshold> 0.0 </threshold>
					<split pos="left">
						<feature> 29 </feature>
						<threshold> 0.80078125 </threshold>
						<split pos="left">
							<output> 1.3416932 </output>
						</split>
						<split pos="right">
							<output> 1.3720508 </output>
						</split>
					</split>
					<split pos="right">
						<feature> 50 </feature>
						<threshold> 0.6015625 </threshold>
						<split pos="left">
							<feature> 26 </feature>
							<threshold> -0.5035093 </threshold>
							<split pos="left">
								<feature> 31 </feature>
								<threshold> 0.07053199 </threshold>
								<split pos="left">
									<output> 1.3656982 </output>
								</split>
								<split pos="right">
									<output> 1.372451 </output>
								</split>
							</split>
							<split pos="right">
								<output> 1.3205281 </output>
							</split>
						</split>
						<split pos="right">
							<output> 1.3313599 </output>
						</split>
					</split>
				</split>
			</split>
		</split>
	</tree>
	<tree id="5" weight="0.1">
		<split>
			<feature> 190 </feature>
			<threshold> 0.33333334 </threshold>
			<split pos="left">
				<feature> 29 </feature>
				<threshold> 0.22265625 </threshold>
				<split pos="left">
					<feature> 190 </feature>
					<threshold> 0.25 </threshold>
					<split pos="left">
						<output> -1.2438653 </output>
					</split>
					<split pos="right">
						<output> 1.4532377 </output>
					</split>
				</split>
				<split pos="right">
					<output> 1.3006204 </output>
				</split>
			</split>
			<split pos="right">
				<feature> 115 </feature>
				<threshold> 2.0 </threshold>
				<split pos="left">
					<feature> 75 </feature>
					<threshold> 0.0 </threshold>
					<split pos="left">
						<output> 0.824067 </output>
					</split>
					<split pos="right">
						<output> 1.2643586 </output>
					</split>
				</split>
				<split pos="right">
					<feature> 90 </feature>
					<threshold> 0.0 </threshold>
					<split pos="left">
						<output> 1.2699416 </output>
					</split>
					<split pos="right">
						<feature> 50 </feature>
						<threshold> 0.6015625 </threshold>
						<split pos="left">
							<feature> 26 </feature>
							<threshold> -0.5035093 </threshold>
							<split pos="left">
								<feature> 31 </feature>
								<threshold> 0.07053199 </threshold>
								<split pos="left">
									<output> 1.2780725 </output>
								</split>
								<split pos="right">
									<output> 1.2858701 </output>
								</split>
							</split>
							<split pos="right">
								<output> 1.2275474 </output>
							</split>
						</split>
						<split pos="right">
							<output> 1.2388155 </output>
						</split>
					</split>
				</split>
			</split>
		</split>
	</tree>
	<tree id="6" weight="0.1">
		<split>
			<feature> 190 </feature>
			<threshold> 0.33333334 </threshold>
			<split pos="left">
				<feature> 29 </feature>
				<threshold> 0.22265625 </threshold>
				<split pos="left">
					<feature> 190 </feature>
					<threshold> 0.25 </threshold>
					<split pos="left">
						<output> -1.1687152 </output>
					</split>
					<split pos="right">
						<output> 1.2409146 </output>
					</split>
				</split>
				<split pos="right">
					<output> 1.202312 </output>
				</split>
			</split>
			<split pos="right">
				<feature> 115 </feature>
				<threshold> 2.0 </threshold>
				<split pos="left">
					<feature> 75 </feature>
					<threshold> 0.0 </threshold>
					<split pos="left">
						<output> 0.7104683 </output>
					</split>
					<split pos="right">
						<output> 1.1971371 </output>
					</split>
				</split>
				<split pos="right">
					<feature> 90 </feature>
					<threshold> 0.0 </threshold>
					<split pos="left">
						<output> 1.2035128 </output>
					</split>
					<split pos="right">
						<feature> 50 </feature>
						<threshold> 0.6015625 </threshold>
						<split pos="left">
							<feature> 26 </feature>
							<threshold> -0.5035093 </threshold>
							<split pos="left">
								<feature> 31 </feature>
								<threshold> 0.07053199 </threshold>
								<split pos="left">
									<output> 1.2128904 </output>
								</split>
								<split pos="right">
									<output> 1.2221087 </output>
								</split>
							</split>
							<split pos="right">
								<output> 1.1550027 </output>
							</split>
						</split>
						<split pos="right">
							<output> 1.1673077 </output>
						</split>
					</split>
				</split>
			</split>
		</split>
	</tree>
	<tree id="7" weight="0.1">
		<split>
			<feature> 190 </feature>
			<threshold> 0.33333334 </threshold>
			<split pos="left">
				<feature> 29 </feature>
				<threshold> 0.22265625 </threshold>
				<split pos="left">
					<feature> 190 </feature>
					<threshold> 0.2 </threshold>
					<split pos="left">
						<output> -1.1436858 </output>
					</split>
					<split pos="right">
						<feature> 148 </feature>
						<threshold> 0.0039043704 </threshold>
						<split pos="left">
							<output> 0.035993375 </output>
						</split>
						<split pos="right">
							<feature> 75 </feature>
							<threshold> 1.0 </threshold>
							<split pos="left">
								<output> 1.1190598 </output>
							</split>
							<split pos="right">
								<output> 1.6279453 </output>
							</split>
						</split>
					</split>
				</split>
				<split pos="right">
					<output> 1.12543 </output>
				</split>
			</split>
			<split pos="right">
				<feature> 115 </feature>
				<threshold> 2.0 </threshold>
				<split pos="left">
					<feature> 75 </feature>
					<threshold> 0.0 </threshold>
					<split pos="left">
						<output> 0.6062075 </output>
					</split>
					<split pos="right">
						<output> 1.1457528 </output>
					</split>
				</split>
				<split pos="right">
					<feature> 75 </feature>
					<threshold> 0.0 </threshold>
					<split pos="left">
						<output> 1.1531464 </output>
					</split>
					<split pos="right">
						<feature> 50 </feature>
						<threshold> 0.6015625 </threshold>
						<split pos="left">
							<output> 1.1740948 </output>
						</split>
						<split pos="right">
							<output> 1.1106727 </output>
						</split>
					</split>
				</split>
			</split>
		</split>
	</tree>
	<tree id="8" weight="0.1">
		<split>
			<feature> 190 </feature>
			<threshold> 0.33333334 </threshold>
			<split pos="left">
				<feature> 157 </feature>
				<threshold> 0.09765625 </threshold>
				<split pos="left">
					<feature> 190 </feature>
					<threshold> 0.2 </threshold>
					<split pos="left">
						<output> -1.0996901 </output>
					</split>
					<split pos="right">
						<feature> 157 </feature>
						<threshold> 0.0078125 </threshold>
						<split pos="left">
							<output> 0.37426293 </output>
						</split>
						<split pos="right">
							<output> 1.1591865 </output>
						</split>
					</split>
				</split>
				<split pos="right">
					<output> 1.1208887 </output>
				</split>
			</split>
			<split pos="right">
				<feature> 115 </feature>
				<threshold> 2.0 </threshold>
				<split pos="left">
					<feature> 75 </feature>
					<threshold> 0.0 </threshold>
					<split pos="left">
						<output> 0.5074976 </output>
					</split>
					<split pos="right">
						<output> 1.1044612 </output>
					</split>
				</split>
				<split pos="right">
					<feature> 75 </feature>
					<threshold> 0.0 </threshold>
					<split pos="left">
						<output> 1.1130716 </output>
					</split>
					<split pos="right">
						<feature> 50 </feature>
						<threshold> 0.6015625 </threshold>
						<split pos="left">
							<feature> 26 </feature>
							<threshold> -0.5035093 </threshold>
							<split pos="left">
								<output> 1.1382284 </output>
							</split>
							<split pos="right">
								<output> 1.0456964 </output>
							</split>
						</split>
						<split pos="right">
							<output> 1.0627367 </output>
						</split>
					</split>
				</split>
			</split>
		</split>
	</tree>
	<tree id="9" weight="0.1">
		<split>
			<feature> 190 </feature>
			<threshold> 0.33333334 </threshold>
			<split pos="left">
				<feature> 157 </feature>
				<threshold> 0.1171875 </threshold>
				<split pos="left">
					<feature> 190 </feature>
					<threshold> 0.16666667 </threshold>
					<split pos="left">
						<output> -1.0798292 </output>
					</split>
					<split pos="right">
						<feature> 75 </feature>
						<threshold> 1.0 </threshold>
						<split pos="left">
							<output> 0.3914096 </output>
						</split>
						<split pos="right">
							<output> 1.1938268 </output>
						</split>
					</split>
				</split>
				<split pos="right">
					<feature> 168 </feature>
					<threshold> 0.0 </threshold>
					<split pos="left">
						<output> 0.8657563 </output>
					</split>
					<split pos="right">
						<output> 1.1442343 </output>
					</split>
				</split>
			</split>
			<split pos="right">
				<feature> 115 </feature>
				<threshold> 2.0 </threshold>
				<split pos="left">
					<feature> 75 </feature>
					<threshold> 0.0 </threshold>
					<split pos="left">
						<output> 0.42364934 </output>
					</split>
					<split pos="right">
						<output> 1.0704288 </output>
					</split>
				</split>
				<split pos="right">
					<feature> 91 </feature>
					<threshold> 0.03125 </threshold>
					<split pos="left">
						<output> 1.064509 </output>
					</split>
					<split pos="right">
						<feature> 75 </feature>
						<threshold> 0.0 </threshold>
						<split pos="left">
							<output> 1.0922927 </output>
						</split>
						<split pos="right">
							<output> 1.1104895 </output>
						</split>
					</split>
				</split>
			</split>
		</split>
	</tree>
	<tree id="10" weight="0.1">
		<split>
			<feature> 190 </feature>
			<threshold> 0.33333334 </threshold>
			<split pos="left">
				<feature> 157 </feature>
				<threshold> 0.1171875 </threshold>
				<split pos="left">
					<feature> 157 </feature>
					<threshold> 0.02734375 </threshold>
					<split pos="left">
						<feature> 190 </feature>
						<threshold> 0.16666667 </threshold>
						<split pos="left">
							<output> -1.0785673 </output>
						</split>
						<split pos="right">
							<output> 0.41720018 </output>
						</split>
					</split>
					<split pos="right">
						<output> 0.9717363 </output>
					</split>
				</split>
				<split pos="right">
					<feature> 168 </feature>
					<threshold> 0.0 </threshold>
					<split pos="left">
						<output> 0.7954083 </output>
					</split>
					<split pos="right">
						<output> 1.1074723 </output>
					</split>
				</split>
			</split>
			<split pos="right">
				<feature> 115 </feature>
				<threshold> 2.0 </threshold>
				<split pos="left">
					<feature> 75 </feature>
					<threshold> 0.0 </threshold>
					<split pos="left">
						<output> 0.31952685 </output>
					</split>
					<split pos="right">
						<output> 1.0407678 </output>
					</split>
				</split>
				<split pos="right">
					<feature> 26 </feature>
					<threshold> -0.5035093 </threshold>
					<split pos="left">
						<feature> 75 </feature>
						<threshold> 0.0 </threshold>
						<split pos="left">
							<output> 1.0585693 </output>
						</split>
						<split pos="right">
							<output> 1.088422 </output>
						</split>
					</split>
					<split pos="right">
						<output> 0.70127076 </output>
					</split>
				</split>
			</split>
		</split>
	</tree>
	<tree id="11" weight="0.1">
		<split>
			<feature> 190 </feature>
			<threshold> 0.33333334 </threshold>
			<split pos="left">
				<feature> 157 </feature>
				<threshold> 0.140625 </threshold>
				<split pos="left">
					<feature> 157 </feature>
					<threshold> 0.02734375 </threshold>
					<split pos="left">
						<feature> 57 </feature>
						<threshold> 0.75 </threshold>
						<split pos="left">
							<feature> 190 </feature>
							<threshold> 0.16666667 </threshold>
							<split pos="left">
								<output> -1.059518 </output>
							</split>
							<split pos="right">
								<output> 0.32895035 </output>
							</split>
						</split>
						<split pos="right">
							<output> 1.5660383 </output>
						</split>
					</split>
					<split pos="right">
						<feature> 91 </feature>
						<threshold> 0.16796875 </threshold>
						<split pos="left">
							<output> 0.70658594 </output>
						</split>
						<split pos="right">
							<output> 1.2850046 </output>
						</split>
					</split>
				</split>
				<split pos="right">
					<feature> 90 </feature>
					<threshold> 0.0 </threshold>
					<split pos="left">
						<output> 0.7790706 </output>
					</split>
					<split pos="right">
						<output> 1.081291 </output>
					</split>
				</split>
			</split>
			<split pos="right">
				<feature> 115 </feature>
				<threshold> 2.0 </threshold>
				<split pos="left">
					<output> 0.9289848 </output>
				</split>
				<split pos="right">
					<feature> 91 </feature>
					<threshold> 0.03125 </threshold>
					<split pos="left">
						<output> 1.0066925 </output>
					</split>
					<split pos="right">
						<output> 1.0680963 </output>
					</split>
				</split>
			</split>
		</split>
	</tree>
	<tree id="12" weight="0.1">
		<split>
			<feature> 190 </feature>
			<threshold> 0.33333334 </threshold>
			<split pos="left">
				<feature> 157 </feature>
				<threshold> 0.1171875 </threshold>
				<split pos="left">
					<feature> 163 </feature>
					<threshold> 11.443494 </threshold>
					<split pos="left">
						<feature> 157 </feature>
						<threshold> 0.02734375 </threshold>
						<split pos="left">
							<feature> 190 </feature>
							<threshold> 0.125 </threshold>
							<split pos="left">
								<output> -1.0570997 </output>
							</split>
							<split pos="right">
								<feature> 75 </feature>
								<threshold> 1.0 </threshold>
								<split pos="left">
									<output> -0.25387883 </output>
								</split>
								<split pos="right">
									<output> 0.9849994 </output>
								</split>
							</split>
						</split>
						<split pos="right">
							<output> 0.8849696 </output>
						</split>
					</split>
					<split pos="right">
						<output> 2.0335157 </output>
					</split>
				</split>
				<split pos="right">
					<feature> 168 </feature>
					<threshold> 0.0 </threshold>
					<split pos="left">
						<output> 0.67155063 </output>
					</split>
					<split pos="right">
						<output> 1.04587 </output>
					</split>
				</split>
			</split>
			<split pos="right">
				<feature> 115 </feature>
				<threshold> 2.0 </threshold>
				<split pos="left">
					<output> 0.8911583 </output>
				</split>
				<split pos="right">
					<feature> 91 </feature>
					<threshold> 0.03125 </threshold>
					<split pos="left">
						<output> 0.9812446 </output>
					</split>
					<split pos="right">
						<output> 1.0535305 </output>
					</split>
				</split>
			</split>
		</split>
	</tree>
	<tree id="13" weight="0.1">
		<split>
			<feature> 190 </feature>
			<threshold> 0.33333334 </threshold>
			<split pos="left">
				<feature> 157 </feature>
				<threshold> 0.1171875 </threshold>
				<split pos="left">
					<feature> 163 </feature>
					<threshold> 11.443494 </threshold>
					<split pos="left">
						<feature> 157 </feature>
						<threshold> 0.02734375 </threshold>
						<split pos="left">
							<feature> 148 </feature>
							<threshold> 0.7457332 </threshold>
							<split pos="left">
								<feature> 190 </feature>
								<threshold> 0.2 </threshold>
								<split pos="left">
									<output> -0.9962962 </output>
								</split>
								<split pos="right">
									<output> 0.36583203 </output>
								</split>
							</split>
							<split pos="right">
								<output> 1.426808 </output>
							</split>
						</split>
						<split pos="right">
							<output> 0.8235294 </output>
						</split>
					</split>
					<split pos="right">
						<output> 1.7702944 </output>
					</split>
				</split>
				<split pos="right">
					<feature> 168 </feature>
					<threshold> 0.0 </threshold>
					<split pos="left">
						<output> 0.6154646 </output>
					</split>
					<split pos="right">
						<output> 1.0192733 </output>
					</split>
				</split>
			</split>
			<split pos="right">
				<feature> 115 </feature>
				<threshold> 2.0 </threshold>
				<split pos="left">
					<output> 0.8518028 </output>
				</split>
				<split pos="right">
					<feature> 168 </feature>
					<threshold> 0.0 </threshold>
					<split pos="left">
						<output> 0.9847461 </output>
					</split>
					<split pos="right">
						<output> 1.0444343 </output>
					</split>
				</split>
			</split>
		</split>
	</tree>
	<tree id="14" weight="0.1">
		<split>
			<feature> 190 </feature>
			<threshold> 0.33333334 </threshold>
			<split pos="left">
				<feature> 157 </feature>
				<threshold> 0.140625 </threshold>
				<split pos="left">
					<feature> 163 </feature>
					<threshold> 11.443494 </threshold>
					<split pos="left">
						<feature> 157 </feature>
						<threshold> 0.02734375 </threshold>
						<split pos="left">
							<feature> 190 </feature>
							<threshold> 0.125 </threshold>
							<split pos="left">
								<output> -1.0188442 </output>
							</split>
							<split pos="right">
								<feature> 75 </feature>
								<threshold> 1.0 </threshold>
								<split pos="left">
									<output> -0.21242444 </output>
								</split>
								<split pos="right">
									<output> 0.9233399 </output>
								</split>
							</split>
						</split>
						<split pos="right">
							<feature> 91 </feature>
							<threshold> 0.16796875 </threshold>
							<split pos="left">
								<output> 0.5062941 </output>
							</split>
							<split pos="right">
								<output> 1.1694614 </output>
							</split>
						</split>
					</split>
					<split pos="right">
						<output> 1.5997392 </output>
					</split>
				</split>
				<split pos="right">
					<output> 0.8791114 </output>
				</split>
			</split>
			<split pos="right">
				<feature> 57 </feature>
				<threshold> 0.07692308 </threshold>
				<split pos="left">
					<feature> 75 </feature>
					<threshold> 0.0 </threshold>
					<split pos="left">
						<output> 0.31459692 </output>
					</split>
					<split pos="right">
						<output> 0.97429943 </output>
					</split>
				</split>
				<split pos="right">
					<output> 1.0305407 </output>
				</split>
			</split>
		</split>
	</tree>
	<tree id="15" weight="0.1">
		<split>
			<feature> 190 </feature>
			<threshold> 0.33333334 </threshold>
			<split pos="left">
				<feature> 163 </feature>
				<threshold> 11.443494 </threshold>
				<split pos="left">
					<feature> 157 </feature>
					<threshold> 0.09765625 </threshold>
					<split pos="left">
						<feature> 29 </feature>
						<threshold> 0.04296875 </threshold>
						<split pos="left">
							<feature> 148 </feature>
							<threshold> 0.7457332 </threshold>
							<split pos="left">
								<feature> 20 </feature>
								<threshold> 3.0 </threshold>
								<split pos="left">
									<feature> 190 </feature>
									<threshold> 0.11111111 </threshold>
									<split pos="left">
										<output> -1.0183257 </output>
									</split>
									<split pos="right">
										<feature> 112 </feature>
										<threshold> -304.47665 </threshold>
										<split pos="left">
											<output> 1.4696493 </output>
										</split>
										<split pos="right">
											<output> 0.11950931 </output>
										</split>
									</split>
								</split>
								<split pos="right">
									<output> 1.9028172 </output>
								</split>
							</split>
							<split pos="right">
								<output> 1.3409207 </output>
							</split>
						</split>
						<split pos="right">
							<output> 0.7334688 </output>
						</split>
					</split>
					<split pos="right">
						<output> 0.8054228 </output>
					</split>
				</split>
				<split pos="right">
					<output> 1.3978556 </output>
				</split>
			</split>
			<split pos="right">
				<feature> 115 </feature>
				<threshold> 2.0 </threshold>
				<split pos="left">
					<output> 0.76676714 </output>
				</split>
				<split pos="right">
					<output> 1.0125663 </output>
				</split>
			</split>
		</split>
	</tree>
	<tree id="16" weight="0.1">
		<split>
			<feature> 190 </feature>
			<threshold> 0.33333334 </threshold>
			<split pos="left">
				<feature> 163 </feature>
				<threshold> 11.443494 </threshold>
				<split pos="left">
					<feature> 29 </feature>
					<threshold> 0.14453125 </threshold>
					<split pos="left">
						<feature> 52 </feature>
						<threshold> 0.009375 </threshold>
						<split pos="left">
							<feature> 20 </feature>
							<threshold> 3.0 </threshold>
							<split pos="left">
								<feature> 92 </feature>
								<threshold> -0.009156673 </threshold>
								<split pos="left">
									<output> 1.5767725 </output>
								</split>
								<split pos="right">
									<feature> 177 </feature>
									<threshold> 1.0 </threshold>
									<split pos="left">
										<output> 1.6756649 </output>
									</split>
									<split pos="right">
										<output> -0.92023426 </output>
									</split>
								</split>
							</split>
							<split pos="right">
								<output> 1.670954 </output>
							</split>
						</split>
						<split pos="right">
							<feature> 75 </feature>
							<threshold> 2.0 </threshold>
							<split pos="left">
								<output> 0.40866658 </output>
							</split>
							<split pos="right">
								<output> 1.450087 </output>
							</split>
						</split>
					</split>
					<split pos="right">
						<output> 0.75729066 </output>
					</split>
				</split>
				<split pos="right">
					<output> 1.3517501 </output>
				</split>
			</split>
			<split pos="right">
				<feature> 115 </feature>
				<threshold> 2.0 </threshold>
				<split pos="left">
					<output> 0.7205422 </output>
				</split>
				<split pos="right">
					<output> 1.0026034 </output>
				</split>
			</split>
		</split>
	</tree>
	<tree id="17" weight="0.1">
		<split>
			<feature> 190 </feature>
			<threshold> 0.33333334 </threshold>
			<split pos="left">
				<feature> 163 </feature>
				<threshold> 11.443494 </threshold>
				<split pos="left">
					<feature> 29 </feature>
					<threshold> 0.14453125 </threshold>
					<split pos="left">
						<feature> 52 </feature>
						<threshold> 0.009375 </threshold>
						<split pos="left">
							<feature> 177 </feature>
							<threshold> 1.0 </threshold>
							<split pos="left">
								<output> 1.5782452 </output>
							</split>
							<split pos="right">
								<feature> 92 </feature>
								<threshold> -0.009156673 </threshold>
								<split pos="left">
									<output> 1.4548687 </output>
								</split>
								<split pos="right">
									<feature> 20 </feature>
									<threshold> 3.0 </threshold>
									<split pos="left">
										<output> -0.90230787 </output>
									</split>
									<split pos="right">
										<output> 1.6016241 </output>
									</split>
								</split>
							</split>
						</split>
						<split pos="right">
							<feature> 75 </feature>
							<threshold> 2.0 </threshold>
							<split pos="left">
								<output> 0.41391218 </output>
							</split>
							<split pos="right">
								<output> 1.4149305 </output>
							</split>
						</split>
					</split>
					<split pos="right">
						<output> 0.7237068 </output>
					</split>
				</split>
				<split pos="right">
					<output> 1.3135163 </output>
				</split>
			</split>
			<split pos="right">
				<feature> 115 </feature>
				<threshold> 2.0 </threshold>
				<split pos="left">
					<output> 0.67437744 </output>
				</split>
				<split pos="right">
					<output> 0.9923201 </output>
				</split>
			</split>
		</split>
	</tree>
	<tree id="18" weight="0.1">
		<split>
			<feature> 190 </feature>
			<threshold> 0.33333334 </threshold>
			<split pos="left">
				<feature> 163 </feature>
				<threshold> 11.443494 </threshold>
				<split pos="left">
					<feature> 29 </feature>
					<threshold> 0.13671875 </threshold>
					<split pos="left">
						<feature> 157 </feature>
						<threshold> 0.01171875 </threshold>
						<split pos="left">
							<feature> 52 </feature>
							<threshold> 0.7874988 </threshold>
							<split pos="left">
								<feature> 20 </feature>
								<threshold> 3.0 </threshold>
								<split pos="left">
									<feature> 190 </feature>
									<threshold> 0.16666667 </threshold>
									<split pos="left">
										<output> -0.94356245 </output>
									</split>
									<split pos="right">
										<output> 0.25528154 </output>
									</split>
								</split>
								<split pos="right">
									<output> 1.4445846 </output>
								</split>
							</split>
							<split pos="right">
								<output> 1.3935955 </output>
							</split>
						</split>
						<split pos="right">
							<feature> 75 </feature>
							<threshold> 1.0 </threshold>
							<split pos="left">
								<output> 0.3437653 </output>
							</split>
							<split pos="right">
								<output> 1.2505789 </output>
							</split>
						</split>
					</split>
					<split pos="right">
						<output> 0.6823985 </output>
					</split>
				</split>
				<split pos="right">
					<output> 1.2532201 </output>
				</split>
			</split>
			<split pos="right">
				<feature> 57 </feature>
				<threshold> 0.07692308 </threshold>
				<split pos="left">
					<output> 0.71957356 </output>
				</split>
				<split pos="right">
					<output> 0.99635524 </output>
				</split>
			</split>
		</split>
	</tree>
	<tree id="19" weight="0.1">
		<split>
			<feature> 190 </feature>
			<threshold> 0.33333334 </threshold>
			<split pos="left">
				<feature> 163 </feature>
				<threshold> 11.443494 </threshold>
				<split pos="left">
					<feature> 29 </feature>
					<threshold> 0.13671875 </threshold>
					<split pos="left">
						<feature> 157 </feature>
						<threshold> 0.01171875 </threshold>
						<split pos="left">
							<feature> 52 </feature>
							<threshold> 0.7874988 </threshold>
							<split pos="left">
								<feature> 20 </feature>
								<threshold> 3.0 </threshold>
								<split pos="left">
									<feature> 103 </feature>
									<threshold> 0.05078125 </threshold>
									<split pos="left">
										<output> 0.7638443 </output>
									</split>
									<split pos="right">
										<feature> 7 </feature>
										<threshold> 8.021427 </threshold>
										<split pos="left">
											<feature> 75 </feature>
											<threshold> 2.0 </threshold>
											<split pos="left">
												<output> -0.9408526 </output>
											</split>
											<split pos="right">
												<output> 0.24283452 </output>
											</split>
										</split>
										<split pos="right">
											<output> 1.0563655 </output>
										</split>
									</split>
								</split>
								<split pos="right">
									<output> 1.3775815 </output>
								</split>
							</split>
							<split pos="right">
								<output> 1.3317895 </output>
							</split>
						</split>
						<split pos="right">
							<output> 0.6375025 </output>
						</split>
					</split>
					<split pos="right">
						<output> 0.6385453 </output>
					</split>
				</split>
				<split pos="right">
					<output> 1.2305955 </output>
				</split>
			</split>
			<split pos="right">
				<output> 0.91332567 </output>
			</split>
		</split>
	</tree>
	<tree id="20" weight="0.1">
		<split>
			<feature> 190 </feature>
			<threshold> 0.33333334 </threshold>
			<split pos="left">
				<feature> 163 </feature>
				<threshold> 11.443494 </threshold>
				<split pos="left">
					<feature> 179 </feature>
					<threshold> 0.09090909 </threshold>
					<split pos="left">
						<feature> 52 </feature>
						<threshold> 0.009375 </threshold>
						<split pos="left">
							<feature> 92 </feature>
							<threshold> -0.009156673 </threshold>
							<split pos="left">
								<output> 1.4498112 </output>
							</split>
							<split pos="right">
								<feature> 177 </feature>
								<threshold> 1.0 </threshold>
								<split pos="left">
									<output> 1.3225112 </output>
								</split>
								<split pos="right">
									<feature> 29 </feature>
									<threshold> 0.23046875 </threshold>
									<split pos="left">
										<feature> 157 </feature>
										<threshold> 0.2265625 </threshold>
										<split pos="left">
											<output> -0.82864046 </output>
										</split>
										<split pos="right">
											<output> 0.95179194 </output>
										</split>
									</split>
									<split pos="right">
										<output> -1.106282 </output>
									</split>
								</split>
							</split>
						</split>
						<split pos="right">
							<feature> 75 </feature>
							<threshold> 2.0 </threshold>
							<split pos="left">
								<output> 0.40986484 </output>
							</split>
							<split pos="right">
								<output> 1.2435247 </output>
							</split>
						</split>
					</split>
					<split pos="right">
						<output> 0.9314099 </output>
					</split>
				</split>
				<split pos="right">
					<output> 1.2002394 </output>
				</split>
			</split>
			<split pos="right">
				<output> 0.89327884 </output>
			</split>
		</split>
	</tree>
	<tree id="21" weight="0.1">
		<split>
			<feature> 190 </feature>
			<threshold> 0.33333334 </threshold>
			<split pos="left">
				<feature> 163 </feature>
				<threshold> 11.443494 </threshold>
				<split pos="left">
					<feature> 179 </feature>
					<threshold> 0.09090909 </threshold>
					<split pos="left">
						<feature> 52 </feature>
						<threshold> 0.009375 </threshold>
						<split pos="left">
							<feature> 177 </feature>
							<threshold> 1.0 </threshold>
							<split pos="left">
								<output> 1.2314007 </output>
							</split>
							<split pos="right">
								<feature> 92 </feature>
								<threshold> -0.009156673 </threshold>
								<split pos="left">
									<output> 1.4695063 </output>
								</split>
								<split pos="right">
									<feature> 116 </feature>
									<threshold> 7.0 </threshold>
									<split pos="left">
										<feature> 163 </feature>
										<threshold> 11.072638 </threshold>
										<split pos="left">
											<feature> 190 </feature>
											<threshold> 0.11111111 </threshold>
											<split pos="left">
												<output> -0.9479532 </output>
											</split>
											<split pos="right">
												<output> 0.1589813 </output>
											</split>
										</split>
										<split pos="right">
											<output> 3.0263402 </output>
										</split>
									</split>
									<split pos="right">
										<output> 1.3098987 </output>
									</split>
								</split>
							</split>
						</split>
						<split pos="right">
							<output> 0.5673258 </output>
						</split>
					</split>
					<split pos="right">
						<output> 0.91025144 </output>
					</split>
				</split>
				<split pos="right">
					<output> 1.1887492 </output>
				</split>
			</split>
			<split pos="right">
				<output> 0.8681432 </output>
			</split>
		</split>
	</tree>
	<tree id="22" weight="0.1">
		<split>
			<feature> 57 </feature>
			<threshold> 0.18181819 </threshold>
			<split pos="left">
				<feature> 52 </feature>
				<threshold> 0.08437501 </threshold>
				<split pos="left">
					<feature> 163 </feature>
					<threshold> 11.072638 </threshold>
					<split pos="left">
						<feature> 52 </feature>
						<threshold> 0.009375 </threshold>
						<split pos="left">
							<feature> 177 </feature>
							<threshold> 1.0 </threshold>
							<split pos="left">
								<output> 1.1313047 </output>
							</split>
							<split pos="right">
								<feature> 92 </feature>
								<threshold> -0.009156673 </threshold>
								<split pos="left">
									<output> 1.5057925 </output>
								</split>
								<split pos="right">
									<feature> 75 </feature>
									<threshold> 1.0 </threshold>
									<split pos="left">
										<output> -0.9267733 </output>
									</split>
									<split pos="right">
										<feature> 148 </feature>
										<threshold> 0.0039043704 </threshold>
										<split pos="left">
											<output> -0.20388353 </output>
										</split>
										<split pos="right">
											<output> 1.2311786 </output>
										</split>
									</split>
								</split>
							</split>
						</split>
						<split pos="right">
							<feature> 75 </feature>
							<threshold> 2.0 </threshold>
							<split pos="left">
								<output> 0.31778246 </output>
							</split>
							<split pos="right">
								<output> 1.1374457 </output>
							</split>
						</split>
					</split>
					<split pos="right">
						<output> 1.4221653 </output>
					</split>
				</split>
				<split pos="right">
					<output> 0.6466351 </output>
				</split>
			</split>
			<split pos="right">
				<output> 0.9569896 </output>
			</split>
		</split>
	</tree>
	<tree id="23" weight="0.1">
		<split>
			<feature> 57 </feature>
			<threshold> 0.18181819 </threshold>
			<split pos="left">
				<feature> 157 </feature>
				<threshold> 0.04296875 </threshold>
				<split pos="left">
					<feature> 163 </feature>
					<threshold> 11.072638 </threshold>
					<split pos="left">
						<feature> 29 </feature>
						<threshold> 0.015625 </threshold>
						<split pos="left">
							<feature> 148 </feature>
							<threshold> 0.788681 </threshold>
							<split pos="left">
								<feature> 75 </feature>
								<threshold> 1.0 </threshold>
								<split pos="left">
									<output> -0.94600904 </output>
								</split>
								<split pos="right">
									<feature> 177 </feature>
									<threshold> 1.0 </threshold>
									<split pos="left">
										<output> 1.4873244 </output>
									</split>
									<split pos="right">
										<feature> 148 </feature>
										<threshold> 0.0039043704 </threshold>
										<split pos="left">
											<output> -0.22742128 </output>
										</split>
										<split pos="right">
											<output> 1.241646 </output>
										</split>
									</split>
								</split>
							</split>
							<split pos="right">
								<output> 0.9542544 </output>
							</split>
						</split>
						<split pos="right">
							<feature> 75 </feature>
							<threshold> 2.0 </threshold>
							<split pos="left">
								<output> 0.3291204 </output>
							</split>
							<split pos="right">
								<output> 1.1390413 </output>
							</split>
						</split>
					</split>
					<split pos="right">
						<output> 1.4862506 </output>
					</split>
				</split>
				<split pos="right">
					<output> 0.49810177 </output>
				</split>
			</split>
			<split pos="right">
				<output> 0.94023573 </output>
			</split>
		</split>
	</tree>
	<tree id="24" weight="0.1">
		<split>
			<feature> 57 </feature>
			<threshold> 0.18181819 </threshold>
			<split pos="left">
				<feature> 52 </feature>
				<threshold> 0.08437501 </threshold>
				<split pos="left">
					<feature> 163 </feature>
					<threshold> 11.072638 </threshold>
					<split pos="left">
						<feature> 52 </feature>
						<threshold> 0.0046875 </threshold>
						<split pos="left">
							<feature> 177 </feature>
							<threshold> 1.0 </threshold>
							<split pos="left">
								<output> 1.0686466 </output>
							</split>
							<split pos="right">
								<feature> 187 </feature>
								<threshold> 0.12243206 </threshold>
								<split pos="left">
									<feature> 116 </feature>
									<threshold> 7.0 </threshold>
									<split pos="left">
										<feature> 127 </feature>
										<threshold> 0.23046875 </threshold>
										<split pos="left">
											<feature> 157 </feature>
											<threshold> 0.2265625 </threshold>
											<split pos="left">
												<output> -0.7654246 </output>
											</split>
											<split pos="right">
												<output> 0.9814363 </output>
											</split>
										</split>
										<split pos="right">
											<output> -1.2376794 </output>
										</split>
									</split>
									<split pos="right">
										<output> 1.3603333 </output>
									</split>
								</split>
								<split pos="right">
									<output> 2.0627947 </output>
								</split>
							</split>
						</split>
						<split pos="right">
							<output> 0.44721308 </output>
						</split>
					</split>
					<split pos="right">
						<output> 1.3843161 </output>
					</split>
				</split>
				<split pos="right">
					<output> 0.55977577 </output>
				</split>
			</split>
			<split pos="right">
				<output> 0.92224735 </output>
			</split>
		</split>
	</tree>
	<tree id="25" weight="0.1">
		<split>
			<feature> 57 </feature>
			<threshold> 0.18181819 </threshold>
			<split pos="left">
				<feature> 29 </feature>
				<threshold> 0.04296875 </threshold>
				<split pos="left">
					<feature> 163 </feature>
					<threshold> 11.072638 </threshold>
					<split pos="left">
						<feature> 148 </feature>
						<threshold> 0.788681 </threshold>
						<split pos="left">
							<feature> 75 </feature>
							<threshold> 2.0 </threshold>
							<split pos="left">
								<feature> 168 </feature>
								<threshold> 7.8125E-4 </threshold>
								<split pos="left">
									<output> -0.99176395 </output>
								</split>
								<split pos="right">
									<feature> 148 </feature>
									<threshold> 0.0039043704 </threshold>
									<split pos="left">
										<output> -0.4739164 </output>
									</split>
									<split pos="right">
										<output> 1.0532953 </output>
									</split>
								</split>
							</split>
							<split pos="right">
								<feature> 148 </feature>
								<threshold> 0.0078087407 </threshold>
								<split pos="left">
									<output> 0.38308045 </output>
								</split>
								<split pos="right">
									<output> 1.2442781 </output>
								</split>
							</split>
						</split>
						<split pos="right">
							<output> 0.84321177 </output>
						</split>
					</split>
					<split pos="right">
						<output> 1.5057276 </output>
					</split>
				</split>
				<split pos="right">
					<feature> 90 </feature>
					<threshold> 0.0 </threshold>
					<split pos="left">
						<output> -0.44566923 </output>
					</split>
					<split pos="right">
						<output> 0.86788285 </output>
					</split>
				</split>
			</split>
			<split pos="right">
				<output> 0.9014764 </output>
			</split>
		</split>
	</tree>
	<tree id="26" weight="0.1">
		<split>
			<feature> 57 </feature>
			<threshold> 0.18181819 </threshold>
			<split pos="left">
				<feature> 157 </feature>
				<threshold> 0.01171875 </threshold>
				<split pos="left">
					<feature> 163 </feature>
					<threshold> 11.072638 </threshold>
					<split pos="left">
						<feature> 52 </feature>
						<threshold> 0.79687375 </threshold>
						<split pos="left">
							<feature> 75 </feature>
							<threshold> 2.0 </threshold>
							<split pos="left">
								<feature> 190 </feature>
								<threshold> 0.33333334 </threshold>
								<split pos="left">
									<feature> 116 </feature>
									<threshold> 7.0 </threshold>
									<split pos="left">
										<feature> 90 </feature>
										<threshold> 0.009114583 </threshold>
										<split pos="left">
											<output> -0.97302747 </output>
										</split>
										<split pos="right">
											<output> -0.1225979 </output>
										</split>
									</split>
									<split pos="right">
										<output> 1.4118397 </output>
									</split>
								</split>
								<split pos="right">
									<output> -0.49867946 </output>
								</split>
							</split>
							<split pos="right">
								<output> 0.6129721 </output>
							</split>
						</split>
						<split pos="right">
							<output> 0.9440789 </output>
						</split>
					</split>
					<split pos="right">
						<output> 1.5117304 </output>
					</split>
				</split>
				<split pos="right">
					<feature> 75 </feature>
					<threshold> 1.0 </threshold>
					<split pos="left">
						<output> 0.106880955 </output>
					</split>
					<split pos="right">
						<output> 0.9691536 </output>
					</split>
				</split>
			</split>
			<split pos="right">
				<output> 0.8786239 </output>
			</split>
		</split>
	</tree>
	<tree id="27" weight="0.1">
		<split>
			<feature> 57 </feature>
			<threshold> 0.18181819 </threshold>
			<split pos="left">
				<feature> 52 </feature>
				<threshold> 0.009375 </threshold>
				<split pos="left">
					<feature> 163 </feature>
					<threshold> 11.072638 </threshold>
					<split pos="left">
						<feature> 177 </feature>
						<threshold> 1.0 </threshold>
						<split pos="left">
							<output> 1.0322369 </output>
						</split>
						<split pos="right">
							<feature> 187 </feature>
							<threshold> 0.12243206 </threshold>
							<split pos="left">
								<feature> 92 </feature>
								<threshold> -0.009156673 </threshold>
								<split pos="left">
									<output> 1.4974549 </output>
								</split>
								<split pos="right">
									<feature> 127 </feature>
									<threshold> 0.23046875 </threshold>
									<split pos="left">
										<feature> 157 </feature>
										<threshold> 0.2265625 </threshold>
										<split pos="left">
											<feature> 190 </feature>
											<threshold> 0.11111111 </threshold>
											<split pos="left">
												<output> -0.8234953 </output>
											</split>
											<split pos="right">
												<output> 0.2754735 </output>
											</split>
										</split>
										<split pos="right">
											<output> 0.99264747 </output>
										</split>
									</split>
									<split pos="right">
										<output> -1.237617 </output>
									</split>
								</split>
							</split>
							<split pos="right">
								<output> 1.5949944 </output>
							</split>
						</split>
					</split>
					<split pos="right">
						<output> 1.5201814 </output>
					</split>
				</split>
				<split pos="right">
					<output> 0.43136075 </output>
				</split>
			</split>
			<split pos="right">
				<output> 0.8552226 </output>
			</split>
		</split>
	</tree>
	<tree id="28" weight="0.1">
		<split>
			<feature> 57 </feature>
			<threshold> 0.18181819 </threshold>
			<split pos="left">
				<feature> 157 </feature>
				<threshold> 0.01171875 </threshold>
				<split pos="left">
					<feature> 163 </feature>
					<threshold> 11.072638 </threshold>
					<split pos="left">
						<feature> 52 </feature>
						<threshold> 0.79687375 </threshold>
						<split pos="left">
							<feature> 187 </feature>
							<threshold> 0.12243206 </threshold>
							<split pos="left">
								<feature> 75 </feature>
								<threshold> 1.0 </threshold>
								<split pos="left">
									<feature> 190 </feature>
									<threshold> 0.33333334 </threshold>
									<split pos="left">
										<output> -0.80267334 </output>
									</split>
									<split pos="right">
										<output> -0.8278967 </output>
									</split>
								</split>
								<split pos="right">
									<feature> 177 </feature>
									<threshold> 1.0 </threshold>
									<split pos="left">
										<output> 1.309387 </output>
									</split>
									<split pos="right">
										<output> 0.3537658 </output>
									</split>
								</split>
							</split>
							<split pos="right">
								<output> 1.4703336 </output>
							</split>
						</split>
						<split pos="right">
							<output> 0.89323145 </output>
						</split>
					</split>
					<split pos="right">
						<output> 1.5076467 </output>
					</split>
				</split>
				<split pos="right">
					<feature> 75 </feature>
					<threshold> 0.0 </threshold>
					<split pos="left">
						<output> -0.4333236 </output>
					</split>
					<split pos="right">
						<output> 0.85618687 </output>
					</split>
				</split>
			</split>
			<split pos="right">
				<output> 0.8273192 </output>
			</split>
		</split>
	</tree>
	<tree id="29" weight="0.1">
		<split>
			<feature> 57 </feature>
			<threshold> 0.25 </threshold>
			<split pos="left">
				<feature> 29 </feature>
				<threshold> 0.84765625 </threshold>
				<split pos="left">
					<feature> 75 </feature>
					<threshold> 1.0 </threshold>
					<split pos="left">
						<feature> 190 </feature>
						<threshold> 0.33333334 </threshold>
						<split pos="left">
							<feature> 29 </feature>
							<threshold> 0.359375 </threshold>
							<split pos="left">
								<feature> 29 </feature>
								<threshold> 0.30859375 </threshold>
								<split pos="left">
									<feature> 52 </feature>
									<threshold> 0.7874988 </threshold>
									<split pos="left">
										<feature> 127 </feature>
										<threshold> 0.23046875 </threshold>
										<split pos="left">
											<feature> 157 </feature>
											<threshold> 0.20703125 </threshold>
											<split pos="left">
												<output> -0.59215856 </output>
											</split>
											<split pos="right">
												<output> 1.0376309 </output>
											</split>
										</split>
										<split pos="right">
											<output> -0.8742187 </output>
										</split>
									</split>
									<split pos="right">
										<output> 1.0350856 </output>
									</split>
								</split>
								<split pos="right">
									<output> 0.7402371 </output>
								</split>
							</split>
							<split pos="right">
								<output> -0.86951375 </output>
							</split>
						</split>
						<split pos="right">
							<output> -0.37056428 </output>
						</split>
					</split>
					<split pos="right">
						<output> 0.6437602 </output>
					</split>
				</split>
				<split pos="right">
					<output> 0.7577453 </output>
				</split>
			</split>
			<split pos="right">
				<output> 0.8217125 </output>
			</split>
		</split>
	</tree>
	<tree id="30" weight="0.1">
		<split>
			<feature> 57 </feature>
			<threshold> 0.18181819 </threshold>
			<split pos="left">
				<feature> 52 </feature>
				<threshold> 0.009375 </threshold>
				<split pos="left">
					<feature> 163 </feature>
					<threshold> 11.072638 </threshold>
					<split pos="left">
						<feature> 3 </feature>
						<threshold> 0.05078125 </threshold>
						<split pos="left">
							<output> 1.1288786 </output>
						</split>
						<split pos="right">
							<feature> 187 </feature>
							<threshold> 0.12243206 </threshold>
							<split pos="left">
								<feature> 190 </feature>
								<threshold> 0.33333334 </threshold>
								<split pos="left">
									<feature> 92 </feature>
									<threshold> -0.009156673 </threshold>
									<split pos="left">
										<output> 1.5513743 </output>
									</split>
									<split pos="right">
										<feature> 190 </feature>
										<threshold> 0.1 </threshold>
										<split pos="left">
											<output> -0.7701863 </output>
										</split>
										<split pos="right">
											<output> 0.32966593 </output>
										</split>
									</split>
								</split>
								<split pos="right">
									<output> -0.4095828 </output>
								</split>
							</split>
							<split pos="right">
								<output> 1.2654521 </output>
							</split>
						</split>
					</split>
					<split pos="right">
						<output> 1.5517546 </output>
					</split>
				</split>
				<split pos="right">
					<feature> 75 </feature>
					<threshold> 1.0 </threshold>
					<split pos="left">
						<output> 0.051295046 </output>
					</split>
					<split pos="right">
						<output> 0.97473454 </output>
					</split>
				</split>
			</split>
			<split pos="right">
				<output> 0.773663 </output>
			</split>
		</split>
	</tree>
	<tree id="31" weight="0.1">
		<split>
			<feature> 57 </feature>
			<threshold> 0.25 </threshold>
			<split pos="left">
				<feature> 157 </feature>
				<threshold> 0.01171875 </threshold>
				<split pos="left">
					<feature> 163 </feature>
					<threshold> 11.072638 </threshold>
					<split pos="left">
						<feature> 187 </feature>
						<threshold> 0.12243206 </threshold>
						<split pos="left">
							<feature> 181 </feature>
							<threshold> 0.79648966 </threshold>
							<split pos="left">
								<feature> 90 </feature>
								<threshold> 0.0013020834 </threshold>
								<split pos="left">
									<output> -0.97671235 </output>
								</split>
								<split pos="right">
									<feature> 31 </feature>
									<threshold> 0.016761111 </threshold>
									<split pos="left">
										<output> 1.9218042 </output>
									</split>
									<split pos="right">
										<feature> 148 </feature>
										<threshold> 0.0039043704 </threshold>
										<split pos="left">
											<output> -0.106706895 </output>
										</split>
										<split pos="right">
											<output> 1.1149178 </output>
										</split>
									</split>
								</split>
							</split>
							<split pos="right">
								<output> 0.825839 </output>
							</split>
						</split>
						<split pos="right">
							<output> 1.2145224 </output>
						</split>
					</split>
					<split pos="right">
						<output> 1.5407174 </output>
					</split>
				</split>
				<split pos="right">
					<feature> 168 </feature>
					<threshold> 0.0 </threshold>
					<split pos="left">
						<output> -0.42522624 </output>
					</split>
					<split pos="right">
						<output> 0.80198896 </output>
					</split>
				</split>
			</split>
			<split pos="right">
				<output> 0.76561743 </output>
			</split>
		</split>
	</tree>
	<tree id="32" weight="0.1">
		<split>
			<feature> 57 </feature>
			<threshold> 0.25 </threshold>
			<split pos="left">
				<feature> 75 </feature>
				<threshold> 2.0 </threshold>
				<split pos="left">
					<feature> 115 </feature>
					<threshold> 2.0 </threshold>
					<split pos="left">
						<feature> 190 </feature>
						<threshold> 0.33333334 </threshold>
						<split pos="left">
							<feature> 3 </feature>
							<threshold> 0.05078125 </threshold>
							<split pos="left">
								<output> 0.97242934 </output>
							</split>
							<split pos="right">
								<feature> 52 </feature>
								<threshold> 0.7406239 </threshold>
								<split pos="left">
									<feature> 29 </feature>
									<threshold> 0.453125 </threshold>
									<split pos="left">
										<feature> 34 </feature>
										<threshold> 0.32421875 </threshold>
										<split pos="left">
											<feature> 29 </feature>
											<threshold> 0.44921875 </threshold>
											<split pos="left">
												<output> -0.63921016 </output>
											</split>
											<split pos="right">
												<output> 1.3051026 </output>
											</split>
										</split>
										<split pos="right">
											<output> 0.6614012 </output>
										</split>
									</split>
									<split pos="right">
										<output> -0.9793051 </output>
									</split>
								</split>
								<split pos="right">
									<output> 1.0676725 </output>
								</split>
							</split>
						</split>
						<split pos="right">
							<output> -0.58842355 </output>
						</split>
					</split>
					<split pos="right">
						<output> 0.4602481 </output>
					</split>
				</split>
				<split pos="right">
					<output> 0.76256144 </output>
				</split>
			</split>
			<split pos="right">
				<output> 0.73539996 </output>
			</split>
		</split>
	</tree>
	<tree id="33" weight="0.1">
		<split>
			<feature> 57 </feature>
			<threshold> 0.25 </threshold>
			<split pos="left">
				<feature> 90 </feature>
				<threshold> 0.0 </threshold>
				<split pos="left">
					<output> -0.8137389 </output>
				</split>
				<split pos="right">
					<feature> 52 </feature>
					<threshold> 0.009375 </threshold>
					<split pos="left">
						<feature> 31 </feature>
						<threshold> 0.016761111 </threshold>
						<split pos="left">
							<output> 1.6156523 </output>
						</split>
						<split pos="right">
							<feature> 177 </feature>
							<threshold> 1.0 </threshold>
							<split pos="left">
								<output> 1.2109479 </output>
							</split>
							<split pos="right">
								<feature> 163 </feature>
								<threshold> 11.072638 </threshold>
								<split pos="left">
									<feature> 148 </feature>
									<threshold> 0.0039043704 </threshold>
									<split pos="left">
										<feature> 114 </feature>
										<threshold> 0.5203125 </threshold>
										<split pos="left">
											<output> 1.8507708 </output>
										</split>
										<split pos="right">
											<feature> 116 </feature>
											<threshold> 7.0 </threshold>
											<split pos="left">
												<output> -0.03842123 </output>
											</split>
											<split pos="right">
												<output> 1.748113 </output>
											</split>
										</split>
									</split>
									<split pos="right">
										<output> 1.1382384 </output>
									</split>
								</split>
								<split pos="right">
									<output> 1.5219011 </output>
								</split>
							</split>
						</split>
					</split>
					<split pos="right">
						<output> 0.81256586 </output>
					</split>
				</split>
			</split>
			<split pos="right">
				<output> 0.69993824 </output>
			</split>
		</split>
	</tree>
	<tree id="34" weight="0.1">
		<split>
			<feature> 57 </feature>
			<threshold> 0.33333334 </threshold>
			<split pos="left">
				<feature> 29 </feature>
				<threshold> 0.84765625 </threshold>
				<split pos="left">
					<feature> 135 </feature>
					<threshold> 11.798666 </threshold>
					<split pos="left">
						<feature> 75 </feature>
						<threshold> 0.0 </threshold>
						<split pos="left">
							<output> -0.7957626 </output>
						</split>
						<split pos="right">
							<feature> 52 </feature>
							<threshold> 0.0046875 </threshold>
							<split pos="left">
								<feature> 31 </feature>
								<threshold> 0.016761111 </threshold>
								<split pos="left">
									<output> 1.5759203 </output>
								</split>
								<split pos="right">
									<feature> 177 </feature>
									<threshold> 1.0 </threshold>
									<split pos="left">
										<output> 1.213701 </output>
									</split>
									<split pos="right">
										<feature> 181 </feature>
										<threshold> 0.0039043704 </threshold>
										<split pos="left">
											<feature> 114 </feature>
											<threshold> 0.5203125 </threshold>
											<split pos="left">
												<output> 1.6923255 </output>
											</split>
											<split pos="right">
												<output> 0.08216711 </output>
											</split>
										</split>
										<split pos="right">
											<output> 2.3004405 </output>
										</split>
									</split>
								</split>
							</split>
							<split pos="right">
								<output> 0.8003853 </output>
							</split>
						</split>
					</split>
					<split pos="right">
						<output> 1.2598974 </output>
					</split>
				</split>
				<split pos="right">
					<output> 0.67696226 </output>
				</split>
			</split>
			<split pos="right">
				<output> 0.6943324 </output>
			</split>
		</split>
	</tree>
	<tree id="35" weight="0.1">
		<split>
			<feature> 57 </feature>
			<threshold> 0.33333334 </threshold>
			<split pos="left">
				<feature> 75 </feature>
				<threshold> 2.0 </threshold>
				<split pos="left">
					<feature> 115 </feature>
					<threshold> 2.0 </threshold>
					<split pos="left">
						<feature> 190 </feature>
						<threshold> 0.33333334 </threshold>
						<split pos="left">
							<feature> 3 </feature>
							<threshold> 0.05078125 </threshold>
							<split pos="left">
								<output> 0.930822 </output>
							</split>
							<split pos="right">
								<feature> 29 </feature>
								<threshold> 0.453125 </threshold>
								<split pos="left">
									<feature> 34 </feature>
									<threshold> 0.32421875 </threshold>
									<split pos="left">
										<feature> 156 </feature>
										<threshold> 11.125881 </threshold>
										<split pos="left">
											<feature> 127 </feature>
											<threshold> 0.44921875 </threshold>
											<split pos="left">
												<output> -0.5644668 </output>
											</split>
											<split pos="right">
												<output> 1.3754607 </output>
											</split>
										</split>
										<split pos="right">
											<output> 1.7041323 </output>
										</split>
									</split>
									<split pos="right">
										<output> 0.6297195 </output>
									</split>
								</split>
								<split pos="right">
									<output> -0.9527218 </output>
								</split>
							</split>
						</split>
						<split pos="right">
							<output> -0.5957738 </output>
						</split>
					</split>
					<split pos="right">
						<output> 0.3969956 </output>
					</split>
				</split>
				<split pos="right">
					<output> 0.7379576 </output>
				</split>
			</split>
			<split pos="right">
				<output> 0.6621281 </output>
			</split>
		</split>
	</tree>
	<tree id="36" weight="0.1">
		<split>
			<feature> 57 </feature>
			<threshold> 0.33333334 </threshold>
			<split pos="left">
				<feature> 75 </feature>
				<threshold> 1.0 </threshold>
				<split pos="left">
					<feature> 190 </feature>
					<threshold> 0.33333334 </threshold>
					<split pos="left">
						<feature> 127 </feature>
						<threshold> 0.359375 </threshold>
						<split pos="left">
							<feature> 127 </feature>
							<threshold> 0.30859375 </threshold>
							<split pos="left">
								<feature> 127 </feature>
								<threshold> 0.23046875 </threshold>
								<split pos="left">
									<feature> 34 </feature>
									<threshold> 0.22265625 </threshold>
									<split pos="left">
										<feature> 157 </feature>
										<threshold> 0.015625 </threshold>
										<split pos="left">
											<output> -0.60734355 </output>
										</split>
										<split pos="right">
											<output> 0.3183428 </output>
										</split>
									</split>
									<split pos="right">
										<output> 1.0444552 </output>
									</split>
								</split>
								<split pos="right">
									<output> -1.0090619 </output>
								</split>
							</split>
							<split pos="right">
								<output> 0.60582316 </output>
							</split>
						</split>
						<split pos="right">
							<output> -0.9614535 </output>
						</split>
					</split>
					<split pos="right">
						<output> -0.47030902 </output>
					</split>
				</split>
				<split pos="right">
					<feature> 52 </feature>
					<threshold> 0.0046875 </threshold>
					<split pos="left">
						<output> 0.37335634 </output>
					</split>
					<split pos="right">
						<output> 0.8930623 </output>
					</split>
				</split>
			</split>
			<split pos="right">
				<output> 0.62575704 </output>
			</split>
		</split>
	</tree>
	<tree id="37" weight="0.1">
		<split>
			<feature> 57 </feature>
			<threshold> 0.33333334 </threshold>
			<split pos="left">
				<feature> 91 </feature>
				<threshold> 0.17578125 </threshold>
				<split pos="left">
					<feature> 190 </feature>
					<threshold> 0.33333334 </threshold>
					<split pos="left">
						<feature> 115 </feature>
						<threshold> 2.0 </threshold>
						<split pos="left">
							<feature> 29 </feature>
							<threshold> 0.453125 </threshold>
							<split pos="left">
								<feature> 127 </feature>
								<threshold> 0.44921875 </threshold>
								<split pos="left">
									<feature> 116 </feature>
									<threshold> 7.0 </threshold>
									<split pos="left">
										<output> -0.5912474 </output>
									</split>
									<split pos="right">
										<output> 1.9953806 </output>
									</split>
								</split>
								<split pos="right">
									<output> 1.5047474 </output>
								</split>
							</split>
							<split pos="right">
								<output> -1.2573812 </output>
							</split>
						</split>
						<split pos="right">
							<output> 0.4034482 </output>
						</split>
					</split>
					<split pos="right">
						<output> -0.47242823 </output>
					</split>
				</split>
				<split pos="right">
					<feature> 31 </feature>
					<threshold> 0.016761111 </threshold>
					<split pos="left">
						<output> 1.3476254 </output>
					</split>
					<split pos="right">
						<feature> 52 </feature>
						<threshold> 0.0046875 </threshold>
						<split pos="left">
							<output> 0.50985503 </output>
						</split>
						<split pos="right">
							<output> 0.8953377 </output>
						</split>
					</split>
				</split>
			</split>
			<split pos="right">
				<output> 0.5933284 </output>
			</split>
		</split>
	</tree>
	<tree id="38" weight="0.1">
		<split>
			<feature> 135 </feature>
			<threshold> 11.798666 </threshold>
			<split pos="left">
				<feature> 29 </feature>
				<threshold> 0.70703125 </threshold>
				<split pos="left">
					<feature> 75 </feature>
					<threshold> 0.0 </threshold>
					<split pos="left">
						<output> -0.74794346 </output>
					</split>
					<split pos="right">
						<feature> 31 </feature>
						<threshold> 0.016761111 </threshold>
						<split pos="left">
							<output> 1.2457405 </output>
						</split>
						<split pos="right">
							<feature> 148 </feature>
							<threshold> 0.0039043704 </threshold>
							<split pos="left">
								<feature> 177 </feature>
								<threshold> 1.0 </threshold>
								<split pos="left">
									<output> 1.2284261 </output>
								</split>
								<split pos="right">
									<feature> 179 </feature>
									<threshold> 0.16666667 </threshold>
									<split pos="left">
										<feature> 187 </feature>
										<threshold> 0.11642314 </threshold>
										<split pos="left">
											<feature> 118 </feature>
											<threshold> 0.71484375 </threshold>
											<split pos="left">
												<output> -0.010245775 </output>
											</split>
											<split pos="right">
												<output> 2.041376 </output>
											</split>
										</split>
										<split pos="right">
											<output> 1.3689512 </output>
										</split>
									</split>
									<split pos="right">
										<output> 1.1415539 </output>
									</split>
								</split>
							</split>
							<split pos="right">
								<output> 0.812144 </output>
							</split>
						</split>
					</split>
				</split>
				<split pos="right">
					<output> 0.5948025 </output>
				</split>
			</split>
			<split pos="right">
				<output> 1.2306831 </output>
			</split>
		</split>
	</tree>
	<tree id="39" weight="0.1">
		<split>
			<feature> 135 </feature>
			<threshold> 11.798666 </threshold>
			<split pos="left">
				<feature> 29 </feature>
				<threshold> 0.70703125 </threshold>
				<split pos="left">
					<feature> 75 </feature>
					<threshold> 1.0 </threshold>
					<split pos="left">
						<feature> 140 </feature>
						<threshold> 18620.469 </threshold>
						<split pos="left">
							<feature> 144 </feature>
							<threshold> 3.0 </threshold>
							<split pos="left">
								<feature> 57 </feature>
								<threshold> 0.2 </threshold>
								<split pos="left">
									<feature> 190 </feature>
									<threshold> 0.33333334 </threshold>
									<split pos="left">
										<feature> 181 </feature>
										<threshold> 0.1639836 </threshold>
										<split pos="left">
											<feature> 127 </feature>
											<threshold> 0.23046875 </threshold>
											<split pos="left">
												<output> -0.3574759 </output>
											</split>
											<split pos="right">
												<output> -0.67223513 </output>
											</split>
										</split>
										<split pos="right">
											<output> 0.79147565 </output>
										</split>
									</split>
									<split pos="right">
										<output> -0.41229782 </output>
									</split>
								</split>
								<split pos="right">
									<output> 0.75650954 </output>
								</split>
							</split>
							<split pos="right">
								<output> -1.1797278 </output>
							</split>
						</split>
						<split pos="right">
							<output> -2.280274 </output>
						</split>
					</split>
					<split pos="right">
						<output> 0.6302089 </output>
					</split>
				</split>
				<split pos="right">
					<output> 0.5628712 </output>
				</split>
			</split>
			<split pos="right">
				<output> 1.2326174 </output>
			</split>
		</split>
	</tree>
	<tree id="40" weight="0.1">
		<split>
			<feature> 57 </feature>
			<threshold> 0.33333334 </threshold>
			<split pos="left">
				<feature> 75 </feature>
				<threshold> 0.0 </threshold>
				<split pos="left">
					<output> -0.69623476 </output>
				</split>
				<split pos="right">
					<feature> 31 </feature>
					<threshold> 0.016761111 </threshold>
					<split pos="left">
						<output> 1.226095 </output>
					</split>
					<split pos="right">
						<feature> 148 </feature>
						<threshold> 0.0039043704 </threshold>
						<split pos="left">
							<feature> 177 </feature>
							<threshold> 1.0 </threshold>
							<split pos="left">
								<output> 1.2199311 </output>
							</split>
							<split pos="right">
								<feature> 163 </feature>
								<threshold> 11.072638 </threshold>
								<split pos="left">
									<feature> 114 </feature>
									<threshold> 0.5203125 </threshold>
									<split pos="left">
										<output> 1.4531031 </output>
									</split>
									<split pos="right">
										<feature> 118 </feature>
										<threshold> 0.71484375 </threshold>
										<split pos="left">
											<feature> 187 </feature>
											<threshold> 0.11642314 </threshold>
											<split pos="left">
												<output> 0.0112073915 </output>
											</split>
											<split pos="right">
												<output> 1.2831851 </output>
											</split>
										</split>
										<split pos="right">
											<output> 1.9130731 </output>
										</split>
									</split>
								</split>
								<split pos="right">
									<output> 1.5796453 </output>
								</split>
							</split>
						</split>
						<split pos="right">
							<output> 0.7825587 </output>
						</split>
					</split>
				</split>
			</split>
			<split pos="right">
				<output> 0.51908386 </output>
			</split>
		</split>
	</tree>
	<tree id="41" weight="0.1">
		<split>
			<feature> 135 </feature>
			<threshold> 11.798666 </threshold>
			<split pos="left">
				<feature> 29 </feature>
				<threshold> 0.70703125 </threshold>
				<split pos="left">
					<feature> 91 </feature>
					<threshold> 0.17578125 </threshold>
					<split pos="left">
						<feature> 190 </feature>
						<threshold> 0.33333334 </threshold>
						<split pos="left">
							<feature> 138 </feature>
							<threshold> 5.0 </threshold>
							<split pos="left">
								<feature> 127 </feature>
								<threshold> 0.23046875 </threshold>
								<split pos="left">
									<feature> 34 </feature>
									<threshold> 0.22265625 </threshold>
									<split pos="left">
										<feature> 163 </feature>
										<threshold> 9.695171 </threshold>
										<split pos="left">
											<feature> 29 </feature>
											<threshold> 0.69921875 </threshold>
											<split pos="left">
												<output> -0.34240508 </output>
											</split>
											<split pos="right">
												<output> -31.610054 </output>
											</split>
										</split>
										<split pos="right">
											<output> 1.2210265 </output>
										</split>
									</split>
									<split pos="right">
										<output> 0.9332651 </output>
									</split>
								</split>
								<split pos="right">
									<output> -0.5447482 </output>
								</split>
							</split>
							<split pos="right">
								<output> 1.1670568 </output>
							</split>
						</split>
						<split pos="right">
							<output> -0.4649584 </output>
						</split>
					</split>
					<split pos="right">
						<output> 0.68952763 </output>
					</split>
				</split>
				<split pos="right">
					<output> 0.51418287 </output>
				</split>
			</split>
			<split pos="right">
				<output> 1.2059329 </output>
			</split>
		</split>
	</tree>
	<tree id="42" weight="0.1">
		<split>
			<feature> 135 </feature>
			<threshold> 11.798666 </threshold>
			<split pos="left">
				<feature> 29 </feature>
				<threshold> 0.53515625 </threshold>
				<split pos="left">
					<feature> 23 </feature>
					<threshold> 22917.5 </threshold>
					<split pos="left">
						<feature> 168 </feature>
						<threshold> 0.0 </threshold>
						<split pos="left">
							<output> -0.665724 </output>
						</split>
						<split pos="right">
							<feature> 31 </feature>
							<threshold> 0.016761111 </threshold>
							<split pos="left">
								<output> 1.2167914 </output>
							</split>
							<split pos="right">
								<feature> 115 </feature>
								<threshold> 2.0 </threshold>
								<split pos="left">
									<feature> 20 </feature>
									<threshold> 0.0 </threshold>
									<split pos="left">
										<feature> 177 </feature>
										<threshold> 1.0 </threshold>
										<split pos="left">
											<output> 1.239522 </output>
										</split>
										<split pos="right">
											<feature> 114 </feature>
											<threshold> 0.5203125 </threshold>
											<split pos="left">
												<output> 1.2326458 </output>
											</split>
											<split pos="right">
												<output> 0.25511768 </output>
											</split>
										</split>
									</split>
									<split pos="right">
										<output> 1.5641824 </output>
									</split>
								</split>
								<split pos="right">
									<output> 0.9008996 </output>
								</split>
							</split>
						</split>
					</split>
					<split pos="right">
						<output> -3.9399452 </output>
					</split>
				</split>
				<split pos="right">
					<output> 0.4181969 </output>
				</split>
			</split>
			<split pos="right">
				<output> 1.1916243 </output>
			</split>
		</split>
	</tree>
	<tree id="43" weight="0.1">
		<split>
			<feature> 135 </feature>
			<threshold> 11.798666 </threshold>
			<split pos="left">
				<feature> 29 </feature>
				<threshold> 0.859375 </threshold>
				<split pos="left">
					<feature> 91 </feature>
					<threshold> 0.08984375 </threshold>
					<split pos="left">
						<feature> 190 </feature>
						<threshold> 0.33333334 </threshold>
						<split pos="left">
							<output> -0.5152428 </output>
						</split>
						<split pos="right">
							<output> -0.8019537 </output>
						</split>
					</split>
					<split pos="right">
						<feature> 157 </feature>
						<threshold> 0.015625 </threshold>
						<split pos="left">
							<feature> 177 </feature>
							<threshold> 2.0 </threshold>
							<split pos="left">
								<output> 1.2951435 </output>
							</split>
							<split pos="right">
								<feature> 181 </feature>
								<threshold> 0.66764635 </threshold>
								<split pos="left">
									<feature> 114 </feature>
									<threshold> 0.5203125 </threshold>
									<split pos="left">
										<output> 1.2097378 </output>
									</split>
									<split pos="right">
										<feature> 115 </feature>
										<threshold> 2.0 </threshold>
										<split pos="left">
											<output> 0.21424757 </output>
										</split>
										<split pos="right">
											<output> 1.204487 </output>
										</split>
									</split>
								</split>
								<split pos="right">
									<output> 1.0570091 </output>
								</split>
							</split>
						</split>
						<split pos="right">
							<output> 0.6703805 </output>
						</split>
					</split>
				</split>
				<split pos="right">
					<output> 0.57922655 </output>
				</split>
			</split>
			<split pos="right">
				<output> 1.178808 </output>
			</split>
		</split>
	</tree>
	<tree id="44" weight="0.1">
		<split>
			<feature> 135 </feature>
			<threshold> 11.798666 </threshold>
			<split pos="left">
				<feature> 115 </feature>
				<threshold> 2.0 </threshold>
				<split pos="left">
					<feature> 20 </feature>
					<threshold> 0.0 </threshold>
					<split pos="left">
						<feature> 190 </feature>
						<threshold> 0.33333334 </threshold>
						<split pos="left">
							<feature> 181 </feature>
							<threshold> 0.74182886 </threshold>
							<split pos="left">
								<feature> 187 </feature>
								<threshold> 0.100649714 </threshold>
								<split pos="left">
									<feature> 92 </feature>
									<threshold> -0.009156673 </threshold>
									<split pos="left">
										<output> 1.1760944 </output>
									</split>
									<split pos="right">
										<feature> 177 </feature>
										<threshold> 1.0 </threshold>
										<split pos="left">
											<output> 0.98898745 </output>
										</split>
										<split pos="right">
											<feature> 190 </feature>
											<threshold> 0.16666667 </threshold>
											<split pos="left">
												<output> -0.46054482 </output>
											</split>
											<split pos="right">
												<output> 0.36765626 </output>
											</split>
										</split>
									</split>
								</split>
								<split pos="right">
									<output> 1.1212734 </output>
								</split>
							</split>
							<split pos="right">
								<output> 0.9233117 </output>
							</split>
						</split>
						<split pos="right">
							<output> -0.3877266 </output>
						</split>
					</split>
					<split pos="right">
						<output> 1.534366 </output>
					</split>
				</split>
				<split pos="right">
					<output> 0.3932182 </output>
				</split>
			</split>
			<split pos="right">
				<output> 1.1727259 </output>
			</split>
		</split>
	</tree>
	<tree id="45" weight="0.1">
		<split>
			<feature> 135 </feature>
			<threshold> 11.798666 </threshold>
			<split pos="left">
				<feature> 75 </feature>
				<threshold> 1.0 </threshold>
				<split pos="left">
					<feature> 144 </feature>
					<threshold> 3.0 </threshold>
					<split pos="left">
						<feature> 57 </feature>
						<threshold> 4.0 </threshold>
						<split pos="left">
							<feature> 115 </feature>
							<threshold> 2.0 </threshold>
							<split pos="left">
								<feature> 190 </feature>
								<threshold> 0.33333334 </threshold>
								<split pos="left">
									<feature> 52 </feature>
									<threshold> 0.7406239 </threshold>
									<split pos="left">
										<feature> 29 </feature>
										<threshold> 0.40234375 </threshold>
										<split pos="left">
											<feature> 29 </feature>
											<threshold> 0.3125 </threshold>
											<split pos="left">
												<output> -0.4963492 </output>
											</split>
											<split pos="right">
												<output> 0.80837643 </output>
											</split>
										</split>
										<split pos="right">
											<output> -1.1186438 </output>
										</split>
									</split>
									<split pos="right">
										<output> 0.9076929 </output>
									</split>
								</split>
								<split pos="right">
									<output> -0.6489514 </output>
								</split>
							</split>
							<split pos="right">
								<output> 0.46103 </output>
							</split>
						</split>
						<split pos="right">
							<output> 1.1465006 </output>
						</split>
					</split>
					<split pos="right">
						<output> -0.93800455 </output>
					</split>
				</split>
				<split pos="right">
					<output> 0.57416564 </output>
				</split>
			</split>
			<split pos="right">
				<output> 1.1480697 </output>
			</split>
		</split>
	</tree>
	<tree id="46" weight="0.1">
		<split>
			<feature> 135 </feature>
			<threshold> 11.798666 </threshold>
			<split pos="left">
				<feature> 91 </feature>
				<threshold> 0.10546875 </threshold>
				<split pos="left">
					<feature> 108 </feature>
					<threshold> 0.6796875 </threshold>
					<split pos="left">
						<feature> 40 </feature>
						<threshold> 8.0 </threshold>
						<split pos="left">
							<feature> 148 </feature>
							<threshold> 0.078087404 </threshold>
							<split pos="left">
								<feature> 144 </feature>
								<threshold> 2.0 </threshold>
								<split pos="left">
									<output> -0.61227757 </output>
								</split>
								<split pos="right">
									<output> 0.47641513 </output>
								</split>
							</split>
							<split pos="right">
								<output> -0.42185253 </output>
							</split>
						</split>
						<split pos="right">
							<output> 1.1263231 </output>
						</split>
					</split>
					<split pos="right">
						<output> -1.1079016 </output>
					</split>
				</split>
				<split pos="right">
					<feature> 157 </feature>
					<threshold> 0.01171875 </threshold>
					<split pos="left">
						<feature> 177 </feature>
						<threshold> 2.0 </threshold>
						<split pos="left">
							<output> 1.3663942 </output>
						</split>
						<split pos="right">
							<feature> 181 </feature>
							<threshold> 0.35139346 </threshold>
							<split pos="left">
								<output> 0.35465077 </output>
							</split>
							<split pos="right">
								<output> 1.1225188 </output>
							</split>
						</split>
					</split>
					<split pos="right">
						<output> 0.6532487 </output>
					</split>
				</split>
			</split>
			<split pos="right">
				<output> 1.138719 </output>
			</split>
		</split>
	</tree>
	<tree id="47" weight="0.1">
		<split>
			<feature> 135 </feature>
			<threshold> 11.798666 </threshold>
			<split pos="left">
				<feature> 75 </feature>
				<threshold> 0.0 </threshold>
				<split pos="left">
					<feature> 190 </feature>
					<threshold> 0.33333334 </threshold>
					<split pos="left">
						<feature> 29 </feature>
						<threshold> 0.35546875 </threshold>
						<split pos="left">
							<output> -0.5511924 </output>
						</split>
						<split pos="right">
							<output> -1.2435023 </output>
						</split>
					</split>
					<split pos="right">
						<output> -0.7811785 </output>
					</split>
				</split>
				<split pos="right">
					<feature> 148 </feature>
					<threshold> 0.0039043704 </threshold>
					<split pos="left">
						<feature> 31 </feature>
						<threshold> 0.016761111 </threshold>
						<split pos="left">
							<output> 1.2143334 </output>
						</split>
						<split pos="right">
							<feature> 177 </feature>
							<threshold> 1.0 </threshold>
							<split pos="left">
								<output> 1.1805434 </output>
							</split>
							<split pos="right">
								<feature> 138 </feature>
								<threshold> 0.4 </threshold>
								<split pos="left">
									<feature> 77 </feature>
									<threshold> 0.5390625 </threshold>
									<split pos="left">
										<output> -0.08581558 </output>
									</split>
									<split pos="right">
										<output> 1.1725073 </output>
									</split>
								</split>
								<split pos="right">
									<output> 0.93488806 </output>
								</split>
							</split>
						</split>
					</split>
					<split pos="right">
						<output> 0.67556506 </output>
					</split>
				</split>
			</split>
			<split pos="right">
				<output> 1.1276966 </output>
			</split>
		</split>
	</tree>
	<tree id="48" weight="0.1">
		<split>
			<feature> 135 </feature>
			<threshold> 11.798666 </threshold>
			<split pos="left">
				<feature> 91 </feature>
				<threshold> 0.08984375 </threshold>
				<split pos="left">
					<feature> 190 </feature>
					<threshold> 0.33333334 </threshold>
					<split pos="left">
						<feature> 127 </feature>
						<threshold> 0.23046875 </threshold>
						<split pos="left">
							<feature> 34 </feature>
							<threshold> 0.22265625 </threshold>
							<split pos="left">
								<output> -0.45501316 </output>
							</split>
							<split pos="right">
								<output> 0.9098382 </output>
							</split>
						</split>
						<split pos="right">
							<output> -0.5971265 </output>
						</split>
					</split>
					<split pos="right">
						<output> -0.4953623 </output>
					</split>
				</split>
				<split pos="right">
					<feature> 157 </feature>
					<threshold> 0.01171875 </threshold>
					<split pos="left">
						<feature> 177 </feature>
						<threshold> 2.0 </threshold>
						<split pos="left">
							<output> 1.328229 </output>
						</split>
						<split pos="right">
							<feature> 181 </feature>
							<threshold> 0.35139346 </threshold>
							<split pos="left">
								<feature> 32 </feature>
								<threshold> 0.9444444 </threshold>
								<split pos="left">
									<output> 0.29097742 </output>
								</split>
								<split pos="right">
									<output> 1.2204438 </output>
								</split>
							</split>
							<split pos="right">
								<output> 1.1090466 </output>
							</split>
						</split>
					</split>
					<split pos="right">
						<output> 0.5780016 </output>
					</split>
				</split>
			</split>
			<split pos="right">
				<output> 1.1089712 </output>
			</split>
		</split>
	</tree>
	<tree id="49" weight="0.1">
		<split>
			<feature> 4 </feature>
			<threshold> 14774.328 </threshold>
			<split pos="left">
				<feature> 75 </feature>
				<threshold> 0.0 </threshold>
				<split pos="left">
					<feature> 190 </feature>
					<threshold> 0.33333334 </threshold>
					<split pos="left">
						<feature> 29 </feature>
						<threshold> 0.35546875 </threshold>
						<split pos="left">
							<output> -0.5227137 </output>
						</split>
						<split pos="right">
							<output> -1.1488143 </output>
						</split>
					</split>
					<split pos="right">
						<output> -0.7387587 </output>
					</split>
				</split>
				<split pos="right">
					<feature> 148 </feature>
					<threshold> 0.0039043704 </threshold>
					<split pos="left">
						<feature> 31 </feature>
						<threshold> 0.016761111 </threshold>
						<split pos="left">
							<output> 1.2122226 </output>
						</split>
						<split pos="right">
							<feature> 177 </feature>
							<threshold> 1.0 </threshold>
							<split pos="left">
								<output> 1.1629876 </output>
							</split>
							<split pos="right">
								<feature> 118 </feature>
								<threshold> 0.71484375 </threshold>
								<split pos="left">
									<feature> 138 </feature>
									<threshold> 0.4 </threshold>
									<split pos="left">
										<output> 0.07718797 </output>
									</split>
									<split pos="right">
										<output> 0.89284116 </output>
									</split>
								</split>
								<split pos="right">
									<output> 1.6494886 </output>
								</split>
							</split>
						</split>
					</split>
					<split pos="right">
						<output> 0.6296115 </output>
					</split>
				</split>
			</split>
			<split pos="right">
				<output> 1.0497112 </output>
			</split>
		</split>
	</tree>
	<tree id="50" weight="0.1">
		<split>
			<feature> 135 </feature>
			<threshold> 11.798666 </threshold>
			<split pos="left">
				<feature> 91 </feature>
				<threshold> 0.17578125 </threshold>
				<split pos="left">
					<feature> 148 </feature>
					<threshold> 0.6910724 </threshold>
					<split pos="left">
						<feature> 40 </feature>
						<threshold> 8.0 </threshold>
						<split pos="left">
							<feature> 168 </feature>
							<threshold> 0.0 </threshold>
							<split pos="left">
								<feature> 190 </feature>
								<threshold> 0.33333334 </threshold>
								<split pos="left">
									<feature> 57 </feature>
									<threshold> 0.33333334 </threshold>
									<split pos="left">
										<output> -0.56707746 </output>
									</split>
									<split pos="right">
										<output> -1.5105683 </output>
									</split>
								</split>
								<split pos="right">
									<output> -0.72864807 </output>
								</split>
							</split>
							<split pos="right">
								<feature> 144 </feature>
								<threshold> 2.0 </threshold>
								<split pos="left">
									<output> 0.10280016 </output>
								</split>
								<split pos="right">
									<output> 0.73684746 </output>
								</split>
							</split>
						</split>
						<split pos="right">
							<output> 1.1025236 </output>
						</split>
					</split>
					<split pos="right">
						<output> -0.77861947 </output>
					</split>
				</split>
				<split pos="right">
					<feature> 148 </feature>
					<threshold> 0.0078087407 </threshold>
					<split pos="left">
						<output> 0.45914587 </output>
					</split>
					<split pos="right">
						<output> 0.69302773 </output>
					</split>
				</split>
			</split>
			<split pos="right">
				<output> 1.079688 </output>
			</split>
		</split>
	</tree>
	<tree id="51" weight="0.1">
		<split>
			<feature> 4 </feature>
			<threshold> 14774.328 </threshold>
			<split pos="left">
				<feature> 91 </feature>
				<threshold> 0.17578125 </threshold>
				<split pos="left">
					<feature> 148 </feature>
					<threshold> 0.6910724 </threshold>
					<split pos="left">
						<feature> 40 </feature>
						<threshold> 8.0 </threshold>
						<split pos="left">
							<feature> 146 </feature>
							<threshold> 25885.148 </threshold>
							<split pos="left">
								<feature> 181 </feature>
								<threshold> 0.56613344 </threshold>
								<split pos="left">
									<feature> 181 </feature>
									<threshold> 0.5622291 </threshold>
									<split pos="left">
										<feature> 144 </feature>
										<threshold> 3.0 </threshold>
										<split pos="left">
											<feature> 57 </feature>
											<threshold> 0.25 </threshold>
											<split pos="left">
												<output> -0.2307637 </output>
											</split>
											<split pos="right">
												<output> 0.5788776 </output>
											</split>
										</split>
										<split pos="right">
											<output> -0.7664939 </output>
										</split>
									</split>
									<split pos="right">
										<output> -264.90826 </output>
									</split>
								</split>
								<split pos="right">
									<output> 0.7120063 </output>
								</split>
							</split>
							<split pos="right">
								<output> -40.564293 </output>
							</split>
						</split>
						<split pos="right">
							<output> 1.0893939 </output>
						</split>
					</split>
					<split pos="right">
						<output> -0.7312597 </output>
					</split>
				</split>
				<split pos="right">
					<output> 0.5483211 </output>
				</split>
			</split>
			<split pos="right">
				<output> 1.0200182 </output>
			</split>
		</split>
	</tree>
	<tree id="52" weight="0.1">
		<split>
			<feature> 135 </feature>
			<threshold> 11.798666 </threshold>
			<split pos="left">
				<feature> 91 </feature>
				<threshold> 0.08984375 </threshold>
				<split pos="left">
					<feature> 190 </feature>
					<threshold> 0.33333334 </threshold>
					<split pos="left">
						<feature> 127 </feature>
						<threshold> 0.23046875 </threshold>
						<split pos="left">
							<feature> 34 </feature>
							<threshold> 0.22265625 </threshold>
							<split pos="left">
								<feature> 40 </feature>
								<threshold> 3.0 </threshold>
								<split pos="left">
									<feature> 157 </feature>
									<threshold> 0.25 </threshold>
									<split pos="left">
										<output> -0.42191988 </output>
									</split>
									<split pos="right">
										<output> 0.90857697 </output>
									</split>
								</split>
								<split pos="right">
									<output> 1.0806504 </output>
								</split>
							</split>
							<split pos="right">
								<output> 0.8918485 </output>
							</split>
						</split>
						<split pos="right">
							<output> -0.49149513 </output>
						</split>
					</split>
					<split pos="right">
						<output> -0.4254987 </output>
					</split>
				</split>
				<split pos="right">
					<feature> 157 </feature>
					<threshold> 0.01171875 </threshold>
					<split pos="left">
						<feature> 177 </feature>
						<threshold> 2.0 </threshold>
						<split pos="left">
							<output> 1.3339792 </output>
						</split>
						<split pos="right">
							<output> 0.32617736 </output>
						</split>
					</split>
					<split pos="right">
						<output> 0.5101206 </output>
					</split>
				</split>
			</split>
			<split pos="right">
				<output> 1.0479729 </output>
			</split>
		</split>
	</tree>
	<tree id="53" weight="0.1">
		<split>
			<feature> 4 </feature>
			<threshold> 14774.328 </threshold>
			<split pos="left">
				<feature> 91 </feature>
				<threshold> 0.0703125 </threshold>
				<split pos="left">
					<feature> 190 </feature>
					<threshold> 0.33333334 </threshold>
					<split pos="left">
						<output> -0.48746473 </output>
					</split>
					<split pos="right">
						<output> -0.4397126 </output>
					</split>
				</split>
				<split pos="right">
					<feature> 157 </feature>
					<threshold> 0.01171875 </threshold>
					<split pos="left">
						<feature> 101 </feature>
						<threshold> 2.0 </threshold>
						<split pos="left">
							<output> 1.2940934 </output>
						</split>
						<split pos="right">
							<feature> 43 </feature>
							<threshold> 0.796875 </threshold>
							<split pos="left">
								<feature> 181 </feature>
								<threshold> 0.66764635 </threshold>
								<split pos="left">
									<feature> 32 </feature>
									<threshold> 0.9444444 </threshold>
									<split pos="left">
										<feature> 190 </feature>
										<threshold> 0.083333336 </threshold>
										<split pos="left">
											<output> -0.05308565 </output>
										</split>
										<split pos="right">
											<output> 0.6131464 </output>
										</split>
									</split>
									<split pos="right">
										<output> 1.2228951 </output>
									</split>
								</split>
								<split pos="right">
									<output> 1.0065559 </output>
								</split>
							</split>
							<split pos="right">
								<output> 1.4931489 </output>
							</split>
						</split>
					</split>
					<split pos="right">
						<output> 0.45546073 </output>
					</split>
				</split>
			</split>
			<split pos="right">
				<output> 0.99161375 </output>
			</split>
		</split>
	</tree>
	<tree id="54" weight="0.1">
		<split>
			<feature> 135 </feature>
			<threshold> 11.798666 </threshold>
			<split pos="left">
				<feature> 75 </feature>
				<threshold> 3.0 </threshold>
				<split pos="left">
					<feature> 78 </feature>
					<threshold> 41180.918 </threshold>
					<split pos="left">
						<feature> 21 </feature>
						<threshold> 0.84756625 </threshold>
						<split pos="left">
							<feature> 21 </feature>
							<threshold> 0.77176774 </threshold>
							<split pos="left">
								<feature> 40 </feature>
								<threshold> 7.0 </threshold>
								<split pos="left">
									<feature> 91 </feature>
									<threshold> 0.046875 </threshold>
									<split pos="left">
										<output> -0.5965459 </output>
									</split>
									<split pos="right">
										<feature> 157 </feature>
										<threshold> 0.01171875 </threshold>
										<split pos="left">
											<feature> 103 </feature>
											<threshold> 0.046875 </threshold>
											<split pos="left">
												<output> 1.1872218 </output>
											</split>
											<split pos="right">
												<output> 0.08988256 </output>
											</split>
										</split>
										<split pos="right">
											<output> 0.41687182 </output>
										</split>
									</split>
								</split>
								<split pos="right">
									<output> 1.0995698 </output>
								</split>
							</split>
							<split pos="right">
								<output> -9.561963 </output>
							</split>
						</split>
						<split pos="right">
							<output> 2.869358 </output>
						</split>
					</split>
					<split pos="right">
						<output> -390.50555 </output>
					</split>
				</split>
				<split pos="right">
					<output> 0.5859608 </output>
				</split>
			</split>
			<split pos="right">
				<output> 1.022144 </output>
			</split>
		</split>
	</tree>
	<tree id="55" weight="0.1">
		<split>
			<feature> 4 </feature>
			<threshold> 14774.328 </threshold>
			<split pos="left">
				<feature> 91 </feature>
				<threshold> 0.37890625 </threshold>
				<split pos="left">
					<feature> 53 </feature>
					<threshold> 0.5234375 </threshold>
					<split pos="left">
						<feature> 44 </feature>
						<threshold> 0.0 </threshold>
						<split pos="left">
							<feature> 190 </feature>
							<threshold> 0.33333334 </threshold>
							<split pos="left">
								<feature> 103 </feature>
								<threshold> 0.05078125 </threshold>
								<split pos="left">
									<output> 0.8706216 </output>
								</split>
								<split pos="right">
									<feature> 29 </feature>
									<threshold> 0.84375 </threshold>
									<split pos="left">
										<feature> 148 </feature>
										<threshold> 0.937046 </threshold>
										<split pos="left">
											<feature> 23 </feature>
											<threshold> 15755.781 </threshold>
											<split pos="left">
												<output> -0.2700294 </output>
											</split>
											<split pos="right">
												<output> 1.3728414 </output>
											</split>
										</split>
										<split pos="right">
											<output> 1.6696633 </output>
										</split>
									</split>
									<split pos="right">
										<output> -1.6552142 </output>
									</split>
								</split>
							</split>
							<split pos="right">
								<output> -0.4267741 </output>
							</split>
						</split>
						<split pos="right">
							<output> 0.34609434 </output>
						</split>
					</split>
					<split pos="right">
						<output> -1.781115 </output>
					</split>
				</split>
				<split pos="right">
					<output> 0.73755914 </output>
				</split>
			</split>
			<split pos="right">
				<output> 1.0154094 </output>
			</split>
		</split>
	</tree>
	<tree id="56" weight="0.1">
		<split>
			<feature> 4 </feature>
			<threshold> 14774.328 </threshold>
			<split pos="left">
				<feature> 75 </feature>
				<threshold> 0.0 </threshold>
				<split pos="left">
					<feature> 190 </feature>
					<threshold> 0.33333334 </threshold>
					<split pos="left">
						<feature> 29 </feature>
						<threshold> 0.359375 </threshold>
						<split pos="left">
							<feature> 29 </feature>
							<threshold> 0.30859375 </threshold>
							<split pos="left">
								<feature> 29 </feature>
								<threshold> 0.23046875 </threshold>
								<split pos="left">
									<feature> 34 </feature>
									<threshold> 0.22265625 </threshold>
									<split pos="left">
										<feature> 106 </feature>
										<threshold> 6426.6406 </threshold>
